<?xml version="1.0"?>
<opencv_storage>
<cascade>
  <stageType>BOOST</stageType>
  <featureType>HAAR</featureType>
  <height>40</height>
  <width>40</width>
  <stageParams>
    <boostType>GAB</boostType>
    <minHitRate>9.9500000476837158e-01</minHitRate>
    <maxFalseAlarm>5.0000000000000000e-01</maxFalseAlarm>
    <weightTrimRate>9.4999998807907104e-01</weightTrimRate>
    <maxDepth>1</maxDepth>
    <maxWeakCount>100</maxWeakCount></stageParams>
  <featureParams>
    <maxCatCount>0</maxCatCount>
    <featSize>1</featSize>
    <mode>BASIC</mode></featureParams>
  <stageNum>6</stageNum>
  <stages>
    <!-- stage 0 -->
    <_>
      <maxWeakCount>2</maxWeakCount>
      <stageThreshold>-2.7952343225479126e-01</stageThreshold>
      <weakClassifiers>
        <_>
          <internalNodes>
            0 -1 9 1.1015798151493073e-01</internalNodes>
          <leafValues>
            -8.6901766061782837e-01 8.1957775354385376e-01</leafValues></_>
        <_>
          <internalNodes>
            0 -1 2 8.8022440671920776e-02</internalNodes>
          <leafValues>
            -8.6574387550354004e-01 5.8949422836303711e-01</leafValues></_></weakClassifiers></_>
    <!-- stage 1 -->
    <_>
      <maxWeakCount>2</maxWeakCount>
      <stageThreshold>-8.7762095034122467e-02</stageThreshold>
      <weakClassifiers>
        <_>
          <internalNodes>
            0 -1 8 1.3130250573158264e-01</internalNodes>
          <leafValues>
            -7.9579579830169678e-01 5.9316241741180420e-01</leafValues></_>
        <_>
          <internalNodes>
            0 -1 10 1.2525964528322220e-02</internalNodes>
          <leafValues>
            -5.9047043323516846e-01 7.0803368091583252e-01</leafValues></_></weakClassifiers></_>
    <!-- stage 2 -->
    <_>
      <maxWeakCount>3</maxWeakCount>
      <stageThreshold>-4.1736096143722534e-01</stageThreshold>
      <weakClassifiers>
        <_>
          <internalNodes>
            0 -1 1 9.3860998749732971e-03</internalNodes>
          <leafValues>
            -7.0426064729690552e-01 6.9942194223403931e-01</leafValues></_>
        <_>
          <internalNodes>
            0 -1 3 -2.4515115655958652e-03</internalNodes>
          <leafValues>
            -6.0505378246307373e-01 7.7450454235076904e-01</leafValues></_>
        <_>
          <internalNodes>
            0 -1 11 -1.8154161807615310e-05</internalNodes>
          <leafValues>
            -4.8760485649108887e-01 9.3759286403656006e-01</leafValues></_></weakClassifiers></_>
    <!-- stage 3 -->
    <_>
      <maxWeakCount>3</maxWeakCount>
      <stageThreshold>-4.8268061876296997e-01</stageThreshold>
      <weakClassifiers>
        <_>
          <internalNodes>
            0 -1 12 1.7101608682423830e-03</internalNodes>
          <leafValues>
            -6.3516485691070557e-01 8.0129587650299072e-01</leafValues></_>
        <_>
          <internalNodes>
            0 -1 6 8.8881701231002808e-04</internalNodes>
          <leafValues>
            7.2618740797042847e-01 -7.6626300811767578e-01</leafValues></_>
        <_>
          <internalNodes>
            0 -1 4 5.0085515249520540e-04</internalNodes>
          <leafValues>
            -5.1771348714828491e-01 1.</leafValues></_></weakClassifiers></_>
    <!-- stage 4 -->
    <_>
      <maxWeakCount>2</maxWeakCount>
      <stageThreshold>-1.4896154403686523e-01</stageThreshold>
      <weakClassifiers>
        <_>
          <internalNodes>
            0 -1 7 1.5227295458316803e-02</internalNodes>
          <leafValues>
            1. -9.2626726627349854e-01</leafValues></_>
        <_>
          <internalNodes>
            0 -1 5 -1.9559388980269432e-02</internalNodes>
          <leafValues>
            -9.9469083547592163e-01 7.7730572223663330e-01</leafValues></_></weakClassifiers></_>
    <!-- stage 5 -->
    <_>
      <maxWeakCount>1</maxWeakCount>
      <stageThreshold>1.</stageThreshold>
      <weakClassifiers>
        <_>
          <internalNodes>
            0 -1 0 1.3652163557708263e-02</internalNodes>
          <leafValues>
            1. -1.</leafValues></_></weakClassifiers></_></stages>
  <features>
    <_>
      <rects>
        <_>
          0 0 1 26 -1.</_>
        <_>
          0 13 1 13 2.</_></rects>
      <tilted>0</tilted></_>
    <_>
      <rects>
        <_>
          0 22 10 18 -1.</_>
        <_>
          0 31 10 9 2.</_></rects>
      <tilted>0</tilted></_>
    <_>
      <rects>
        <_>
          2 3 22 29 -1.</_>
        <_>
          13 3 11 29 2.</_></rects>
      <tilted>0</tilted></_>
    <_>
      <rects>
        <_>
          2 32 35 8 -1.</_>
        <_>
          2 36 35 4 2.</_></rects>
      <tilted>0</tilted></_>
    <_>
      <rects>
        <_>
          3 32 2 8 -1.</_>
        <_>
          3 36 2 4 2.</_></rects>
      <tilted>0</tilted></_>
    <_>
      <rects>
        <_>
          6 34 21 6 -1.</_>
        <_>
          13 34 7 6 3.</_></rects>
      <tilted>0</tilted></_>
    <_>
      <rects>
        <_>
          9 10 10 24 -1.</_>
        <_>
          9 10 5 12 2.</_>
        <_>
          14 22 5 12 2.</_></rects>
      <tilted>0</tilted></_>
    <_>
      <rects>
        <_>
          10 23 12 4 -1.</_>
        <_>
          14 23 4 4 3.</_></rects>
      <tilted>0</tilted></_>
    <_>
      <rects>
        <_>
          12 0 24 28 -1.</_>
        <_>
          12 14 24 14 2.</_></rects>
      <tilted>0</tilted></_>
    <_>
      <rects>
        <_>
          13 0 24 26 -1.</_>
        <_>
          13 13 24 13 2.</_></rects>
      <tilted>0</tilted></_>
    <_>
      <rects>
        <_>
          25 10 12 30 -1.</_>
        <_>
          25 10 6 15 2.</_>
        <_>
          31 25 6 15 2.</_></rects>
      <tilted>0</tilted></_>
    <_>
      <rects>
        <_>
          36 19 4 4 -1.</_>
        <_>
          38 19 2 4 2.</_></rects>
      <tilted>0</tilted></_>
    <_>
      <rects>
        <_>
          38 10 2 28 -1.</_>
        <_>
          38 24 2 14 2.</_></rects>
      <tilted>0</tilted></_></features></cascade>
</opencv_storage>
